digraph Tree {
node [shape=box] ;
0 [label="Sex <= 0.5\nentropy = 0.9729\nsamples = 528\nvalue = [315, 213]"] ;
1 [label="Pclass <= 2.5\nentropy = 0.799\nsamples = 198\nvalue = [48, 150]"] ;
0 -> 1 [labeldistance=2.5, labelangle=45, headlabel="True"] ;
2 [label="Fare <= 29.3563\nentropy = 0.3492\nsamples = 122\nvalue = [8, 114]"] ;
1 -> 2 ;
3 [label="Age <= 37.0\nentropy = 0.5917\nsamples = 49\nvalue = [7, 42]"] ;
2 -> 3 ;
4 [label="Age <= 27.5\nentropy = 0.4138\nsamples = 36\nvalue = [3, 33]"] ;
3 -> 4 ;
5 [label="entropy = 0.6098\nsamples = 20\nvalue = [3, 17]"] ;
4 -> 5 ;
6 [label="entropy = 0.0\nsamples = 16\nvalue = [0, 16]"] ;
4 -> 6 ;
7 [label="entropy = 0.8905\nsamples = 13\nvalue = [4, 9]"] ;
3 -> 7 ;
8 [label="Parch <= 1.5\nentropy = 0.1044\nsamples = 73\nvalue = [1, 72]"] ;
2 -> 8 ;
9 [label="entropy = 0.0\nsamples = 62\nvalue = [0, 62]"] ;
8 -> 9 ;
10 [label="entropy = 0.4395\nsamples = 11\nvalue = [1, 10]"] ;
8 -> 10 ;
11 [label="Fare <= 19.7354\nentropy = 0.998\nsamples = 76\nvalue = [40, 36]"] ;
1 -> 11 ;
12 [label="Age <= 16.5\nentropy = 0.9769\nsamples = 56\nvalue = [23, 33]"] ;
11 -> 12 ;
13 [label="entropy = 0.7496\nsamples = 14\nvalue = [3, 11]"] ;
12 -> 13 ;
14 [label="Age <= 21.5\nentropy = 0.9984\nsamples = 42\nvalue = [20, 22]"] ;
12 -> 14 ;
15 [label="entropy = 0.9183\nsamples = 12\nvalue = [8, 4]"] ;
14 -> 15 ;
16 [label="entropy = 0.971\nsamples = 30\nvalue = [12, 18]"] ;
14 -> 16 ;
17 [label="Age <= 38.5\nentropy = 0.6098\nsamples = 20\nvalue = [17, 3]"] ;
11 -> 17 ;
18 [label="entropy = 0.7793\nsamples = 13\nvalue = [10, 3]"] ;
17 -> 18 ;
19 [label="entropy = 0.0\nsamples = 7\nvalue = [7, 0]"] ;
17 -> 19 ;
20 [label="Age <= 12.5\nentropy = 0.7034\nsamples = 330\nvalue = [267, 63]"] ;
0 -> 20 [labeldistance=2.5, labelangle=-45, headlabel="False"] ;
21 [label="SibSp <= 2.5\nentropy = 0.9923\nsamples = 29\nvalue = [13, 16]"] ;
20 -> 21 ;
22 [label="entropy = 0.0\nsamples = 15\nvalue = [0, 15]"] ;
21 -> 22 ;
23 [label="entropy = 0.3712\nsamples = 14\nvalue = [13, 1]"] ;
21 -> 23 ;
24 [label="Pclass <= 1.5\nentropy = 0.625\nsamples = 301\nvalue = [254, 47]"] ;
20 -> 24 ;
25 [label="Age <= 43.0\nentropy = 0.9236\nsamples = 62\nvalue = [41, 21]"] ;
24 -> 25 ;
26 [label="Age <= 30.5\nentropy = 0.9975\nsamples = 34\nvalue = [18, 16]"] ;
25 -> 26 ;
27 [label="entropy = 0.9183\nsamples = 12\nvalue = [8, 4]"] ;
26 -> 27 ;
28 [label="entropy = 0.994\nsamples = 22\nvalue = [10, 12]"] ;
26 -> 28 ;
29 [label="Age <= 47.5\nentropy = 0.6769\nsamples = 28\nvalue = [23, 5]"] ;
25 -> 29 ;
30 [label="entropy = 0.0\nsamples = 7\nvalue = [7, 0]"] ;
29 -> 30 ;
31 [label="entropy = 0.7919\nsamples = 21\nvalue = [16, 5]"] ;
29 -> 31 ;
32 [label="Age <= 32.25\nentropy = 0.4962\nsamples = 239\nvalue = [213, 26]"] ;
24 -> 32 ;
33 [label="Age <= 30.75\nentropy = 0.5849\nsamples = 164\nvalue = [141, 23]"] ;
32 -> 33 ;
34 [label="entropy = 0.4648\nsamples = 152\nvalue = [137, 15]"] ;
33 -> 34 ;
35 [label="entropy = 0.9183\nsamples = 12\nvalue = [4, 8]"] ;
33 -> 35 ;
36 [label="Age <= 41.5\nentropy = 0.2423\nsamples = 75\nvalue = [72, 3]"] ;
32 -> 36 ;
37 [label="entropy = 0.0\nsamples = 40\nvalue = [40, 0]"] ;
36 -> 37 ;
38 [label="entropy = 0.422\nsamples = 35\nvalue = [32, 3]"] ;
36 -> 38 ;
}